{"cols": ["variance@8e9a50f1", "edge_density@4d8b833e", "chroma_complexity@296da35d", "cb_sharpness@8c598dce", "cr_sharpness@d63fb62b", "uniformity@63836451", "flat_color_block_ratio@4abb6d9b", "colourfulness@565ef18c", "laplacian_variance@4b241385", "variance_spread@1d5b275c", "distinct_color_bins@4b461bf0", "palette_density@726dd005", "cb_horiz_sharpness@2249c81d", "cb_vert_sharpness@61016450", "cb_peak_sharpness@99deeb0a", "cr_horiz_sharpness@664bed01", "cr_vert_sharpness@dadfa13e", "cr_peak_sharpness@bd31738c", "high_freq_energy_ratio@9df18f16", "luma_histogram_entropy@b1683357", "dct_compressibility_y@794690ab", "dct_compressibility_uv@4a332970", "patch_fraction@4d52aebc", "alpha_present@f307e9da", "alpha_used_fraction@ec61d7c5", "alpha_bimodal_score@1ec8c890", "palette_fits_in_256@8027dc58", "grayscale_score@8f08a6a5", "aq_map_mean@f0b3ec4a", "aq_map_std@575083ff", "noise_floor_y@6b8f1013", "noise_floor_uv@767aeeb2", "gradient_fraction@b7cfe644", "skin_tone_fraction@6b3d9c3c", "edge_slope_stdev@5ba2543a", "patch_fraction_fast@d19dc492", "quant_survival_y@0e06739e", "quant_survival_uv@befaf02a", "is_grayscale@7587a9be", "pixel_count@d49a1919", "log_pixels@1c094010", "min_dim@d1246f28", "max_dim@643711c1", "bitmap_bytes@4c898cd0", "aspect_min_over_max@fb87c54b", "log_aspect_abs@eda8176b", "block_misalignment_8@3180b005", "block_misalignment_32@274e887e", "channel_count@aa8817e3", "aq_map_p50@c8f793cd", "aq_map_p75@ddc15412", "aq_map_p90@f0719a03", "aq_map_p95@04f30645", "aq_map_p99@5c487d08", "noise_floor_y_p25@8a2f313a", "noise_floor_y_p50@95961389", "noise_floor_y_p75@03a49b2e", "noise_floor_y_p90@20255e0e", "noise_floor_uv_p25@96e97190", "noise_floor_uv_p50@2f2b92d9", "noise_floor_uv_p75@e9c032c7", "noise_floor_uv_p90@9b89fd22", "laplacian_variance_p50@a205ee70", "laplacian_variance_p75@862c5aba", "laplacian_variance_p90@6f5b4d44", "laplacian_variance_p99@c4b1c469", "laplacian_variance_peak@a30a4a05", "quant_survival_y_p10@ca35cd4e", "quant_survival_y_p25@21a7c1f5", "quant_survival_y_p50@34d24f7f", "quant_survival_y_p75@db39be35", "quant_survival_uv_p10@d4d1138e", "quant_survival_uv_p25@6183d27f", "quant_survival_uv_p50@19652e99", "quant_survival_uv_p75@0a4c0fe8", "log_padded_pixels_8@4fb0bdbd", "log_padded_pixels_16@913f254f", "log_padded_pixels_32@68bf0b0f", "laplacian_variance_p1@e84b3af0", "laplacian_variance_p5@8736231b", "laplacian_variance_p10@cd113d1e", "aq_map_p1@426a6b9e", "aq_map_p5@c7983f71", "aq_map_p10@72fbae33", "noise_floor_y_p1@f73c329e", "noise_floor_y_p5@aca8e739", "noise_floor_y_p10@cbf4cba3", "quant_survival_y_p1@bb4c0f3d", "quant_survival_y_p5@3d359b90", "luma_kurtosis@cd0dd7d4", "gradient_fraction_smooth@71d0f5a3", "palette_log2_size@01c777d9", "chroma_luma_covariance_cb@3e5ca2e1", "chroma_luma_covariance_cr@ca45d43f", "info_weight_mean@0b1e7c72", "info_weight_p90@66ea4c1d", "orientation_energy_ratio@bc450f3f", "spectral_slope_y@91277465", "xyb444_color_loss@ef6982d1", "xyb_bquarter_chroma_loss@64ee2810", "chroma_subsample_dct_loss@48f0f976", "target_zq"], "families": ["jpeg", "webp", "jxl", "avif"], "weights": {"jpeg": {"w": [-2.7440113342554466e-06, -0.13677111614666987, 0.6003758355251231, 3.485031499188985, 4.516736388585529, -0.9065978116602131, -0.4362179760209318, 0.0004939785481662315, 0.004356549275373897, -0.13186413089693025, 2.6052790728677798e-05, -0.6836103679214208, -0.503666531650336, 0.10683917094242341, 0.0044442052961303335, -0.04319729302406037, -0.1241702575677676, 0.0014177973935697236, 0.05984214035590088, -0.028920842105606803, -0.0001937731894009696, -0.0006206298402097421, -0.046944806245939705, 0.0, 0.0, 0.0, 0.01768062983151077, -0.1101692462359885, 0.4102306505954877, 0.36699041036699875, 0.01858967221450481, -0.17714842377423956, -0.21663181657862862, -0.032943203743050244, 0.0018748782995220575, -0.09551197566576262, 0.9191796417487634, 6.469813311558771, -0.03944007440614548, -6.276755324254056e-07, 0.31664921572594684, 0.0015863801468706115, 0.0011198495072240243, -2.092251774286046e-07, 0.46154376522587676, 0.3298895105363555, -0.24149201001239007, 0.11927539796571812, 0.0, -0.008026451456915504, -0.026916627184723107, 0.0979959354196626, 0.028207943812185877, -0.07216526069460388, -0.05351253782353637, -0.10280634299814746, 0.049995429183721705, 0.14845921810888063, 0.011197668175511714, 0.019753551392049595, -0.040314673662932295, 0.04459180975640103, 0.0007111545120237817, -0.0002656347225099405, 0.0010785248541173929, 0.0011033986953605467, 0.0007715803654079956, 0.7628499124141261, -0.40240956418383533, 0.23542279978403843, 0.2979226795593715, -0.6210697084463459, 1.0220765994558385, -0.9954790839889598, -1.7125859877519631, 0.3103387122781319, 0.1384981499465904, -0.11288320152370385, -0.01694152155345883, 0.00012241784210771612, 0.011196866537068369, 0.015826051894688317, 0.0029149294980656574, 0.03252715798936475, 0.15139830757814365, 0.0929462572643667, -0.13851008164675577, -0.4167401021865268, -0.5568990006144551, -0.0002647324532612334, -0.2764219455520199, 0.005416512583548235, -0.01107817949824806, 0.004229684826954201, -0.19098486293992506, -0.033538708412728914, -0.08850960053903079, 0.10568337367313309, 0.06529883713479655, -0.021053624873900608, -0.0038492529090794277, 0.036051583244709466], "b": -3.3730918354381494}, "webp": {"w": [-4.819128911255689e-06, 0.4351473726260622, -0.0887508006761989, 5.500761400566457, 5.5755124012236825, -1.6224017151910004, -0.7662498164810615, 0.0014664822960363127, -0.008677503286300152, -0.1012016568279395, -7.558306274522583e-07, -0.14988236603861904, -0.46375959640718634, -0.5274781914843623, 0.008038563638828699, -0.02402594468412025, -0.15447892139578806, 0.001877452258252561, 0.05690728801239298, 0.011341116363766052, 0.004965521827065803, -0.0010044284788945214, 0.23068405660597602, 0.0, 0.0, 0.0, -0.014910192201801903, -0.15202068926481932, 0.364876025925042, 0.5279509212860166, 0.18817239902553032, -0.3316300353931002, -0.25050873485663055, -0.13374492948615793, 0.00046908910166039913, -0.8991302926854406, 3.1213617376179714, 8.144211163598733, -0.011253775956381329, -4.2199840531019996e-07, 0.42635656333888283, 0.0010703109040621913, 0.0006571506198271555, -1.406661351159109e-07, 0.5337346137229114, 0.43337362972644405, -1.0969081276858614, 0.13784094243589032, 0.0, -0.01891694040410827, -0.04191102382536393, 0.015405305398976606, -0.01847562154581349, -0.22266440287527786, 0.20251502464594293, -0.08631213897161799, 0.08580379285538717, 0.1903248342126142, 0.07255682031752116, 0.07690172061236228, 0.036816142848371126, 0.05243553406888832, -0.002455077587678135, 0.00011895829445856834, 0.0006176591677401615, 0.0015994228646572272, 0.0015006170852071756, 0.3912470481178545, -1.218204972951796, -0.3481606924889275, 0.3267687126453179, 1.2618861170184734, 0.43882179281850875, -1.9898913786134313, -2.4646264576904913, 0.4236642124971246, 0.10302919637921636, -0.1169822934408578, 0.02456250558939334, -0.048970532062420746, 0.03411289533543997, 0.038207441357695576, 0.004764347243813997, 0.021519150385345038, 0.22799904285353545, 0.09794032306954105, -0.2045148175490831, -0.6481914898398388, -0.8286256077267156, -0.0011727052811409324, -0.8135619640940048, 0.014127038004752495, -0.020299867239563, 0.005354020103443061, -0.42860304517224973, -0.020252130487826137, 0.15601292920930843, 0.23261596417824285, -0.11046544349778954, -0.011730160498692915, 0.009090896113198627, 0.042813823793596426], "b": -4.277473738493404}, "jxl": {"w": [-5.0050348147876236e-06, -0.04958318569567338, 0.39531964751113424, 2.5666469926567483, 1.9576853961436518, -1.3745888806653899, -0.6779692346138704, -0.00047930477468093334, -0.0017677194345133511, -0.07606016954530098, 2.7936352147553368e-05, -0.36740623096914843, -0.36594973837718336, -0.12411691359917035, 0.003254133063124242, 0.022804051627087176, -0.10541970725360392, 0.0013352482849340913, 0.05851681273633748, -0.03147695765224328, 0.00015609592054988244, -0.00056530553714339, -0.3592688817373075, 0.0, 0.0, 0.0, 0.011574561646336991, -0.1198128184701906, 0.2110533264324548, 0.35209958192147645, 0.0020631427027619008, -0.25201760946256047, -0.14720858709204704, -0.02956162376187969, 0.004136414199836565, -0.057675019760051426, 2.11663404584736, 2.839743014679491, 0.011809671174589836, -3.804708434670256e-07, 0.3448016960391994, 0.0010327745702589702, 0.0006155055929772986, -1.2682361446760136e-07, 0.9533581116671803, 0.7073586011509926, -0.1243206212265434, 0.001341399525797421, 0.0, -0.02837452008889293, -0.03822029212118565, 0.05131559049272827, 0.0498021067894255, -0.13227518213777437, 0.07212359524683377, -0.07971581293605459, 0.08239581209593023, 0.22615981591734996, -0.13772631265806304, 0.03595420425197536, 0.02890312456578086, 0.09655793975829517, -0.0005225467442792936, -0.0012652017091182004, 0.000701903319836073, 0.0011692808887660154, 0.001426320867131935, 0.6927545255496681, -0.9883116180937672, 0.45407996403308404, 0.30250976257126255, 2.2013986920168813, 1.8857798043318943, -0.4048969339401363, -1.987930856937526, 0.34510759623116655, 0.05857688979652292, -0.007588330504108341, -0.023009725152215447, -0.01832485544038741, 0.020388615362760088, 0.011776727628955451, -0.008963484036942701, 0.0357990853013275, 0.20449267063267626, 0.23709574379928736, -0.16225829673610861, -1.8287117467490641, -0.5557678861660025, -0.0007959978647376901, -0.6831444525782708, 0.01111788137043064, -0.03018409119586629, -0.009769574517879966, -0.17779411189101602, -0.01671470082316407, -0.11951269411407862, 0.13683297663744398, -0.056230014173570195, 0.012263562958952938, -9.993963683378152e-06, 0.032715748169043074], "b": -3.35728268538692}, "avif": {"w": [-9.064830005238677e-07, 0.40463109919909923, -0.9290786889352188, 5.747900543996559, 7.4227006804192595, -1.5329236301413667, -0.9189208166794546, 0.0006861654721432215, -0.014607671476352764, -0.05877221989730574, 4.296063881712386e-05, -0.7877434633360637, -0.12506984813887567, -0.30959640265394256, 0.008799282955197364, -0.12781356714379427, -0.24055395120114023, 0.0016898326236506305, 0.05795168271406151, -0.015159535802905483, 0.004925515491080846, 4.978049158903759e-05, 0.30295652510923604, 0.0, 0.0, 0.0, 0.013225153018944289, -0.19204381670156664, 0.3967543499978272, 0.5557240119775937, 0.09533178728365647, -0.7033373271285904, -0.24086226181500112, -0.0976125784504146, 0.003984595606230424, -1.0240812697176143, 3.636015942622213, 2.7344640365952353, 0.05229493395168913, -8.15708814718783e-07, 0.3715006692519959, 0.001816488175978126, 0.0014765403326126533, -2.7190293824436764e-07, 0.1611844840635228, 0.11854059268709892, -0.39887999447453587, 0.14006439275932647, 0.0, -0.00476101403142558, -0.0008157844975444972, 0.09338106935461944, 0.0613021164483376, -0.39312204672823253, 0.2184020574891508, -0.03683862423890063, 0.11246092998615671, 0.33383041884896464, 0.13490438957635112, -0.039776432600683816, 0.14043211789836604, 0.12645110007231322, -0.002427981485475193, 0.00016121574394830878, 0.00019883061359097872, 0.0011929946165484544, 0.0012896548980917593, 1.274292949678341, -1.8343358564317565, -0.3151604136241919, 0.3556878015755871, 3.072688915970208, 1.809374516228604, 0.45253489488355736, -3.087157847069817, 0.3682061105490908, 0.03128449564957309, -0.18370330232712515, 0.011773622866522183, -0.04005975227168487, 0.04094486670222667, 0.01896161077562503, 0.003370578369053849, 0.0352014242050535, 0.5435841965599384, 0.0560163170489351, -0.18803534830777452, -1.7269011278547486, -0.8938647064695414, -0.0021138225222021557, -1.0288051430894818, 0.017250803869534356, -0.01579742479469854, -0.001219549368698616, -0.46970007104277356, -0.05330624420079516, 0.02606696571086695, 0.3840722723863254, -0.5033509056831196, -0.028953686261819718, 0.014072558892521084, 0.034862366305148725], "b": -0.6723232230136773}}, "test_vector": [1183.113892, 0.174898, 0.172529, 0.016346, 0.00709, 0.680556, 0.30787, 73.23848, 0.337981, 1.208627, 1077.0, 0.038954, 0.04207, 0.02807, 4.0, 0.05073, 0.03226, 6.0, 0.212178, 2.953235, 19.560184, 12.180555, 0.00463, 0.0, 0.0, 0.0, 0.0, 0.025101, 2.498543, 1.573092, 0.021962, 0.012665, 0.175926, 0.054217, 34.972866, 0.00463, 0.075874, 0.018519, 0.0, 27648.0, 10.227308, 144.0, 192.0, 82944.0, 0.75, 0.287682, 0.0, 0.111111, 3.0, 1.643453, 4.302288, 5.084191, 5.299295, 5.454172, 0.027082, 0.049056, 0.915875, 1.0, 0.021627, 0.032552, 0.227151, 0.938917, 1.0, 9.0, 66.0, 191.0, 255.0, 0.0, 0.0, 0.0, 0.15873, 0.0, 0.0, 0.0, 0.015873, 10.227308, 10.227308, 10.332669, 0.0, 0.0, 0.0, 0.767851, 1.031409, 1.14951, 0.013098, 0.018476, 0.021962, 0.0, 0.0, 10.30439, 0.707401, 11.0, -0.039524, 0.030183, 1.652249, 6.264341, 1.137884, 1.015677, 0.650154, 1.335929, 1.094003, 48.0], "test_scores": {"jpeg": 7.156584518064916, "webp": 6.910470693905037, "jxl": 7.012385824646486, "avif": 7.0048576781212795}}